<?xml version="1.0"?>
<opencv_storage>
<cascade>
  <stageType>BOOST</stageType>
  <featureType>HAAR</featureType>
  <height>24</height>
  <width>24</width>
  <stageParams>
    <boostType>GAB</boostType>
    <minHitRate>9.9500000476837158e-01</minHitRate>
    <maxFalseAlarm>5.0000000000000000e-01</maxFalseAlarm>
    <weightTrimRate>9.4999999999999996e-01</weightTrimRate>
    <maxDepth>1</maxDepth>
    <maxWeakCount>100</maxWeakCount></stageParams>
  <featureParams>
    <maxCatCount>0</maxCatCount>
    <featSize>1</featSize>
    <mode>BASIC</mode></featureParams>
  <stageNum>14</stageNum>
  <stages>
    <!-- stage 0 -->
    <_>
      <maxWeakCount>1</maxWeakCount>
      <stageThreshold>6.9230771064758301e-01</stageThreshold>
      <weakClassifiers>
        <_>
          <internalNodes>
            0 -1 18 1.7025832086801529e-02</internalNodes>
          <leafValues>
            -1. 6.9230771064758301e-01</leafValues></_></weakClassifiers></_>
    <!-- stage 1 -->
    <_>
      <maxWeakCount>2</maxWeakCount>
      <stageThreshold>-1.9590619206428528e-01</stageThreshold>
      <weakClassifiers>
        <_>
          <internalNodes>
            0 -1 15 6.9740666076540947e-03</internalNodes>
          <leafValues>
            -9.5959597826004028e-01 7.3913043737411499e-01</leafValues></_>
        <_>
          <internalNodes>
            0 -1 20 -2.5032805278897285e-03</internalNodes>
          <leafValues>
            8.9137536287307739e-01 -9.3503665924072266e-01</leafValues></_></weakClassifiers></_>
    <!-- stage 2 -->
    <_>
      <maxWeakCount>2</maxWeakCount>
      <stageThreshold>-4.7313693165779114e-01</stageThreshold>
      <weakClassifiers>
        <_>
          <internalNodes>
            0 -1 14 6.8935841321945190e-02</internalNodes>
          <leafValues>
            -9.2079210281372070e-01 7.1428573131561279e-01</leafValues></_>
        <_>
          <internalNodes>
            0 -1 4 4.5517370104789734e-02</internalNodes>
          <leafValues>
            -9.4967681169509888e-01 4.4765514135360718e-01</leafValues></_></weakClassifiers></_>
    <!-- stage 3 -->
    <_>
      <maxWeakCount>3</maxWeakCount>
      <stageThreshold>-1.0568597316741943e+00</stageThreshold>
      <weakClassifiers>
        <_>
          <internalNodes>
            0 -1 24 -8.0778732895851135e-02</internalNodes>
          <leafValues>
            8.6666667461395264e-01 -8.5046726465225220e-01</leafValues></_>
        <_>
          <internalNodes>
            0 -1 30 1.9012305885553360e-02</internalNodes>
          <leafValues>
            -7.5927466154098511e-01 7.2686684131622314e-01</leafValues></_>
        <_>
          <internalNodes>
            0 -1 21 8.1333694979548454e-03</internalNodes>
          <leafValues>
            -9.7948962450027466e-01 5.5288219451904297e-01</leafValues></_></weakClassifiers></_>
    <!-- stage 4 -->
    <_>
      <maxWeakCount>2</maxWeakCount>
      <stageThreshold>-4.6171525120735168e-01</stageThreshold>
      <weakClassifiers>
        <_>
          <internalNodes>
            0 -1 33 -4.3641757220029831e-03</internalNodes>
          <leafValues>
            7.6470589637756348e-01 -8.6666667461395264e-01</leafValues></_>
        <_>
          <internalNodes>
            0 -1 17 -5.0374347483739257e-04</internalNodes>
          <leafValues>
            4.0495142340660095e-01 -8.5843533277511597e-01</leafValues></_></weakClassifiers></_>
    <!-- stage 5 -->
    <_>
      <maxWeakCount>3</maxWeakCount>
      <stageThreshold>-1.0718680620193481e+00</stageThreshold>
      <weakClassifiers>
        <_>
          <internalNodes>
            0 -1 1 -8.6238428950309753e-02</internalNodes>
          <leafValues>
            1. -7.8571426868438721e-01</leafValues></_>
        <_>
          <internalNodes>
            0 -1 25 -4.1368998587131500e-02</internalNodes>
          <leafValues>
            8.4655278921127319e-01 -8.1771636009216309e-01</leafValues></_>
        <_>
          <internalNodes>
            0 -1 3 -4.8380449879914522e-04</internalNodes>
          <leafValues>
            -1. 5.3156262636184692e-01</leafValues></_></weakClassifiers></_>
    <!-- stage 6 -->
    <_>
      <maxWeakCount>3</maxWeakCount>
      <stageThreshold>-1.0410461425781250e+00</stageThreshold>
      <weakClassifiers>
        <_>
          <internalNodes>
            0 -1 11 2.8794133663177490e-01</internalNodes>
          <leafValues>
            -8.1651377677917480e-01 8.4615385532379150e-01</leafValues></_>
        <_>
          <internalNodes>
            0 -1 6 -1.8534658476710320e-02</internalNodes>
          <leafValues>
            8.7773603200912476e-01 -7.1588325500488281e-01</leafValues></_>
        <_>
          <internalNodes>
            0 -1 12 1.9499057671055198e-03</internalNodes>
          <leafValues>
            -9.0344929695129395e-01 4.9135085940361023e-01</leafValues></_></weakClassifiers></_>
    <!-- stage 7 -->
    <_>
      <maxWeakCount>3</maxWeakCount>
      <stageThreshold>-9.7389262914657593e-01</stageThreshold>
      <weakClassifiers>
        <_>
          <internalNodes>
            0 -1 32 -1.1306634172797203e-02</internalNodes>
          <leafValues>
            7.3333334922790527e-01 -8.3177572488784790e-01</leafValues></_>
        <_>
          <internalNodes>
            0 -1 27 -1.5621692873537540e-03</internalNodes>
          <leafValues>
            4.7411164641380310e-01 -8.2320219278335571e-01</leafValues></_>
        <_>
          <internalNodes>
            0 -1 5 -5.3478050976991653e-02</internalNodes>
          <leafValues>
            7.5949037075042725e-01 -6.1622858047485352e-01</leafValues></_></weakClassifiers></_>
    <!-- stage 8 -->
    <_>
      <maxWeakCount>3</maxWeakCount>
      <stageThreshold>-7.3646122217178345e-01</stageThreshold>
      <weakClassifiers>
        <_>
          <internalNodes>
            0 -1 16 7.7299393713474274e-02</internalNodes>
          <leafValues>
            -8.0000001192092896e-01 8.3333331346511841e-01</leafValues></_>
        <_>
          <internalNodes>
            0 -1 2 -2.2795043885707855e-02</internalNodes>
          <leafValues>
            7.9781782627105713e-01 -6.5500378608703613e-01</leafValues></_>
        <_>
          <internalNodes>
            0 -1 23 -2.9594968073070049e-03</internalNodes>
          <leafValues>
            7.1854257583618164e-01 -6.9013071060180664e-01</leafValues></_></weakClassifiers></_>
    <!-- stage 9 -->
    <_>
      <maxWeakCount>3</maxWeakCount>
      <stageThreshold>-1.1045299768447876e+00</stageThreshold>
      <weakClassifiers>
        <_>
          <internalNodes>
            0 -1 10 1.4101268351078033e-01</internalNodes>
          <leafValues>
            -7.9629629850387573e-01 5.7142859697341919e-01</leafValues></_>
        <_>
          <internalNodes>
            0 -1 31 3.5913649946451187e-02</internalNodes>
          <leafValues>
            -7.1595007181167603e-01 6.4894980192184448e-01</leafValues></_>
        <_>
          <internalNodes>
            0 -1 7 -6.6954118665307760e-04</internalNodes>
          <leafValues>
            4.0771639347076416e-01 -1.</leafValues></_></weakClassifiers></_>
    <!-- stage 10 -->
    <_>
      <maxWeakCount>2</maxWeakCount>
      <stageThreshold>-5.6630736589431763e-01</stageThreshold>
      <weakClassifiers>
        <_>
          <internalNodes>
            0 -1 19 1.0771775990724564e-01</internalNodes>
          <leafValues>
            -8.4313726425170898e-01 4.0000000596046448e-01</leafValues></_>
        <_>
          <internalNodes>
            0 -1 29 9.8668001592159271e-03</internalNodes>
          <leafValues>
            -9.6126538515090942e-01 2.7682989835739136e-01</leafValues></_></weakClassifiers></_>
    <!-- stage 11 -->
    <_>
      <maxWeakCount>2</maxWeakCount>
      <stageThreshold>-4.7948741912841797e-01</stageThreshold>
      <weakClassifiers>
        <_>
          <internalNodes>
            0 -1 8 1.1277295649051666e-01</internalNodes>
          <leafValues>
            -7.5438594818115234e-01 1.</leafValues></_>
        <_>
          <internalNodes>
            0 -1 28 -6.6687259823083878e-04</internalNodes>
          <leafValues>
            -1. 2.7489855885505676e-01</leafValues></_></weakClassifiers></_>
    <!-- stage 12 -->
    <_>
      <maxWeakCount>2</maxWeakCount>
      <stageThreshold>-1.2473984807729721e-01</stageThreshold>
      <weakClassifiers>
        <_>
          <internalNodes>
            0 -1 26 -7.9347491264343262e-02</internalNodes>
          <leafValues>
            6.4705884456634521e-01 -8.4761905670166016e-01</leafValues></_>
        <_>
          <internalNodes>
            0 -1 0 -7.4508488178253174e-02</internalNodes>
          <leafValues>
            7.7464705705642700e-01 -7.7179867029190063e-01</leafValues></_></weakClassifiers></_>
    <!-- stage 13 -->
    <_>
      <maxWeakCount>3</maxWeakCount>
      <stageThreshold>-6.9716912508010864e-01</stageThreshold>
      <weakClassifiers>
        <_>
          <internalNodes>
            0 -1 13 2.6078203693032265e-02</internalNodes>
          <leafValues>
            -7.6991152763366699e-01 1.</leafValues></_>
        <_>
          <internalNodes>
            0 -1 22 1.9742422737181187e-03</internalNodes>
          <leafValues>
            -7.2563749551773071e-01 5.9070664644241333e-01</leafValues></_>
        <_>
          <internalNodes>
            0 -1 9 -1.6422819346189499e-02</internalNodes>
          <leafValues>
            8.7474060058593750e-01 -5.1796430349349976e-01</leafValues></_></weakClassifiers></_></stages>
  <features>
    <_>
      <rects>
        <_>
          0 2 12 8 -1.</_>
        <_>
          4 2 4 8 3.</_></rects>
      <tilted>0</tilted></_>
    <_>
      <rects>
        <_>
          0 6 9 10 -1.</_>
        <_>
          3 6 3 10 3.</_></rects>
      <tilted>0</tilted></_>
    <_>
      <rects>
        <_>
          0 6 15 2 -1.</_>
        <_>
          5 6 5 2 3.</_></rects>
      <tilted>0</tilted></_>
    <_>
      <rects>
        <_>
          0 6 8 4 -1.</_>
        <_>
          0 8 8 2 2.</_></rects>
      <tilted>0</tilted></_>
    <_>
      <rects>
        <_>
          1 0 12 12 -1.</_>
        <_>
          1 0 6 6 2.</_>
        <_>
          7 6 6 6 2.</_></rects>
      <tilted>0</tilted></_>
    <_>
      <rects>
        <_>
          1 5 6 12 -1.</_>
        <_>
          3 5 2 12 3.</_></rects>
      <tilted>0</tilted></_>
    <_>
      <rects>
        <_>
          1 8 6 3 -1.</_>
        <_>
          3 8 2 3 3.</_></rects>
      <tilted>0</tilted></_>
    <_>
      <rects>
        <_>
          1 14 9 2 -1.</_>
        <_>
          1 15 9 1 2.</_></rects>
      <tilted>0</tilted></_>
    <_>
      <rects>
        <_>
          1 18 18 5 -1.</_>
        <_>
          7 18 6 5 3.</_></rects>
      <tilted>0</tilted></_>
    <_>
      <rects>
        <_>
          2 19 8 3 -1.</_>
        <_>
          6 19 4 3 2.</_></rects>
      <tilted>0</tilted></_>
    <_>
      <rects>
        <_>
          4 0 20 18 -1.</_>
        <_>
          4 6 20 6 3.</_></rects>
      <tilted>0</tilted></_>
    <_>
      <rects>
        <_>
          5 3 18 19 -1.</_>
        <_>
          11 3 6 19 3.</_></rects>
      <tilted>0</tilted></_>
    <_>
      <rects>
        <_>
          5 14 6 1 -1.</_>
        <_>
          7 14 2 1 3.</_></rects>
      <tilted>0</tilted></_>
    <_>
      <rects>
        <_>
          6 2 7 4 -1.</_>
        <_>
          6 4 7 2 2.</_></rects>
      <tilted>0</tilted></_>
    <_>
      <rects>
        <_>
          6 2 11 12 -1.</_>
        <_>
          6 6 11 4 3.</_></rects>
      <tilted>0</tilted></_>
    <_>
      <rects>
        <_>
          6 5 5 6 -1.</_>
        <_>
          6 7 5 2 3.</_></rects>
      <tilted>0</tilted></_>
    <_>
      <rects>
        <_>
          6 6 15 4 -1.</_>
        <_>
          11 6 5 4 3.</_></rects>
      <tilted>0</tilted></_>
    <_>
      <rects>
        <_>
          6 10 2 2 -1.</_>
        <_>
          6 10 1 1 2.</_>
        <_>
          7 11 1 1 2.</_></rects>
      <tilted>0</tilted></_>
    <_>
      <rects>
        <_>
          6 10 12 4 -1.</_>
        <_>
          6 12 12 2 2.</_></rects>
      <tilted>0</tilted></_>
    <_>
      <rects>
        <_>
          7 1 11 10 -1.</_>
        <_>
          7 6 11 5 2.</_></rects>
      <tilted>0</tilted></_>
    <_>
      <rects>
        <_>
          8 10 2 3 -1.</_>
        <_>
          8 11 2 1 3.</_></rects>
      <tilted>0</tilted></_>
    <_>
      <rects>
        <_>
          8 10 9 3 -1.</_>
        <_>
          11 10 3 3 3.</_></rects>
      <tilted>0</tilted></_>
    <_>
      <rects>
        <_>
          8 11 1 2 -1.</_>
        <_>
          8 12 1 1 2.</_></rects>
      <tilted>0</tilted></_>
    <_>
      <rects>
        <_>
          9 20 5 2 -1.</_>
        <_>
          9 21 5 1 2.</_></rects>
      <tilted>0</tilted></_>
    <_>
      <rects>
        <_>
          11 0 12 10 -1.</_>
        <_>
          11 0 6 5 2.</_>
        <_>
          17 5 6 5 2.</_></rects>
      <tilted>0</tilted></_>
    <_>
      <rects>
        <_>
          11 4 8 5 -1.</_>
        <_>
          15 4 4 5 2.</_></rects>
      <tilted>0</tilted></_>
    <_>
      <rects>
        <_>
          11 5 8 18 -1.</_>
        <_>
          15 5 4 18 2.</_></rects>
      <tilted>0</tilted></_>
    <_>
      <rects>
        <_>
          12 10 3 5 -1.</_>
        <_>
          13 10 1 5 3.</_></rects>
      <tilted>0</tilted></_>
    <_>
      <rects>
        <_>
          13 12 4 4 -1.</_>
        <_>
          15 12 2 4 2.</_></rects>
      <tilted>0</tilted></_>
    <_>
      <rects>
        <_>
          14 9 2 9 -1.</_>
        <_>
          14 12 2 3 3.</_></rects>
      <tilted>0</tilted></_>
    <_>
      <rects>
        <_>
          14 9 6 13 -1.</_>
        <_>
          16 9 2 13 3.</_></rects>
      <tilted>0</tilted></_>
    <_>
      <rects>
        <_>
          16 2 8 17 -1.</_>
        <_>
          20 2 4 17 2.</_></rects>
      <tilted>0</tilted></_>
    <_>
      <rects>
        <_>
          17 6 2 10 -1.</_>
        <_>
          18 6 1 10 2.</_></rects>
      <tilted>0</tilted></_>
    <_>
      <rects>
        <_>
          17 7 2 5 -1.</_>
        <_>
          18 7 1 5 2.</_></rects>
      <tilted>0</tilted></_></features></cascade>
</opencv_storage>
